{"input_size": 24, "hidden_size": 24, "output_size": 4, "layers": [{"weights": [-3.343319457034092, 0.9129558381394303, 1.6406340577566587, 1.3274939659665033, -0.0575103976819596, 2.9200775364182796, -0.37112524340325875, 0.045411164801742204, 1.840546696122721, -0.007644807237908053, 4.397930181326996, 2.831206929857514, -1.7319267546559869, 2.8303462412475495, -1.7932031313433117, 1.9038055617378644, -0.3826558105448192, -1.042470270582863, -1.155836683040252, -1.2307058830785904, -1.4488012521043716, 3.378087195598632, 1.251231857968646, 0.8233681401733469], "bias": 3.6136478888708243}, {"weights": [-0.30802268769476376, -1.6878573897037323, -1.599549293961449, -5.2714788990331325, 0.44390913538992505, -2.717446454457271, -1.7991867632489198, -0.3568210073982605, 0.05142850826195304, -0.9600442323071768, 2.510111805326922, -1.876500489159089, 2.5976055315015607, -2.8366836475083717, 0.11241140233966121, 0.2672273957712522, -3.2007800384016476, 0.27352284809388216, 2.086176238986285, -1.8828657916021247, 2.430052931614704, 1.608196052740307, 1.5479308873509838, 1.4649453092440676], "bias": -0.05540789642588349}, {"weights": [1.1124473950200242, 0.255286420251683, 1.5742951096738487, -2.1144077226439166, -0.3158443808354486, -1.2773023659541953, 1.829440406832135, 0.9250525350085208, 0.33766169505670107, -0.953695509970991, 1.4820646154461457, -0.6048876044865076, -1.891364872602098, -1.2663056499515108, 1.7954158760370496, 3.6253166807746844, 1.5804856175334765, -1.692398757488345, -2.457849067422813, 1.5151365361579365, -2.8044002725905024, -0.20000167326225493, -1.954249257504703, -2.6326061631282958], "bias": -2.797851698198557}, {"weights": [-2.686222308973617, -3.8252258905755427, -1.669986150316919, 1.8126814681728503, 1.31148861310283, -1.114719136502893, -0.2878190489339452, -0.6727605559295913, 0.04139563294050414, -1.7733444859711378, -0.04263586985571779, -1.130482960464595, 0.3252109658272596, -0.5132141734527124, 1.5504020377046681, -0.23033087118221138, -1.1171275699443417, -3.3377784873104184, 0.8409448121488635, -0.7612221518428766, -0.8434575692863464, 0.2877112808821823, 2.9036678077264804, -4.473787871844343], "bias": 0.3686309740080075}, {"weights": [3.647742913214982, 2.455516122153199, -1.4261765540730078, -0.3816206513321616, 3.258016742764003, -1.6362741975429829, -1.238890639819491, 1.8579553973753153, 0.43880556180384905, 2.429953173610926, -0.874527323293418, 0.3727779991772562, -0.769162217625086, 0.24862191461546437, 3.471447899999926, -0.7421118826734956, 3.0421139508603923, -0.43367202855934905, -3.4775990745560486, -1.6450101440019014, 0.04410523561512056, -1.7466497143953967, 0.8262164090839699, 0.21413399758020196], "bias": 1.1954254054857207}, {"weights": [0.8311400048874299, -1.0726622911754766, 2.6464503514525313, 1.51268142204409, 0.8018105884572035, -2.109953433375664, 4.1995539104951, -0.8472171158226319, 2.0427466529908367, 1.031183042195171, -1.9742278484742761, -1.7159749255178254, 0.28335354066209584, 0.315717937001703, -6.177164622322506, 1.2910226474607305, -0.0562033094638517, 2.7883557602836215, -2.3635676690742216, 0.864517954586836, -4.2851979220321645, -1.8084774379091237, 0.5056651468800976, -0.02288306792971511], "bias": -2.889731448565115}, {"weights": [1.190562152185422, -1.1116015153732748, -2.1670488895532616, 0.3651249440859538, -2.0447960301181083, -3.8143245471005165, 2.492861373661424, 1.6899741504340273, -1.1500053505421015, -1.7688080850390877, 0.28185595644991523, -3.0757792930523773, 2.834308323768571, -1.906267622102976, 0.4488619380624748, -0.07439851692771507, 1.9026279963368795, 2.1992852830268204, 5.3338418001959385, -1.7034647743961022, -2.8439936590437047, 0.13053767253539666, 2.0517565566017946, -1.6086367730781927], "bias": 1.609894357635717}, {"weights": [1.312886941748471, -2.0840088152432177, -1.6022151852428024, -0.3582239427146285, 1.1876236923925714, 0.1870451561918348, -1.3439687689831181, -3.1434798906674035, -2.9121755064252333, 4.460164451571236, 0.47859382374190584, -0.016459914410866992, 1.5403660670561807, 3.345255980282183, 1.516140848459651, -0.44291318440720434, 0.814224996292853, 1.833507152894101, -1.8180829637925695, 2.1151380999175893, 1.8987089440102078, -0.3498304489354817, -0.49487006570809555, -0.6619013932578173], "bias": -2.3946225381735826}, {"weights": [2.3232099413948983, 1.6195319084160107, -1.3614655707480798, 0.13446477831570983, -0.2976614715342863, -2.0461705700008164, -1.2424196071989295, 0.7270341168778098, 0.7196545474693388, 1.1553206883269684, -2.987124766522892, 3.0517644388857352, -3.1653572029532357, 1.7562154034424848, 0.7017822926649685, -0.7377998421487464, -0.9646836324663405, -3.227916091088261, -0.6576546156795257, 0.2911834582317701, -0.31774327981030237, -0.23217187787329563, -1.7515785294230728, 2.4112418378843934], "bias": 3.3125827123426035}, {"weights": [-2.3328625928950437, 0.6231475162372916, -3.0844625117504907, 1.2220195395820663, -2.6064186901971573, -3.980617508883085, 1.0394883850568613, -0.5249261135544041, 1.080055481033732, 1.3482848109556813, -0.4703887472077722, 1.9343202591364097, -3.1372591064959505, 0.5155228083604657, 0.2130693074429869, -2.8255525283367695, 0.3821494119731749, -0.9805953257685506, -1.9753218759755828, -1.6349148322143063, 4.927266037830194, 1.4688434119390976, 0.0483529027629759, 0.6943318277269496], "bias": -1.8954372350748163}, {"weights": [1.3839335972512645, -2.9129925682165254, 2.8980746922331493, -4.095795829528035, 4.416900524430777, -3.2867054717254893, -0.5888116333652996, 2.034774083925581, -0.4755466762370045, 0.912902776226789, 0.23049810310253832, -1.920082766181847, -3.151382987140207, -0.5840977608865833, 1.734728362678725, 2.824244394581027, 1.7408141426649126, -3.181746998964968, 1.384622523791672, -1.6413606288158933, -4.232732618921749, 0.6425336342287542, -0.8101043200254519, 1.0587424552361127], "bias": -0.16517363489359285}, {"weights": [-0.2086530943993465, 2.165786981868307, -0.11094155086391304, -2.021066303789444, -1.1555497422300747, 0.025758461193675475, 2.028190786928836, -0.07947888620585304, -4.243769960505453, -1.2508210822679147, -1.1312272739798959, -1.9852299051172053, 3.9713615248997964, 3.014549718568943, -3.9014247278311553, -4.727930365175154, 2.461513993996964, 1.5004826251488599, 2.7533960716368626, -0.5484063167818097, -0.8200107955959917, -1.5902366637235696, 2.9711540748276084, 0.37870649363930864], "bias": 3.3495488941155633}, {"weights": [-0.9785568800149057, 0.7382044459391224, -2.600643513448578, 0.6965657445452085, -2.4227873346511215, 0.9506850803064233, -1.390494409614227, -0.4632390564717417, -3.725607730987464, -1.8861198126680543, 1.4657633773463083, 2.6731010778684845, 0.4389680058799819, -0.8418350910433309, 2.202652129879107, 1.7089324505823282, 2.044171896085529, -2.1944995770048488, -2.021763905174846, 2.4303295297555954, -5.16897118529146, 1.7144263531702575, 1.2749487410288274, 2.3300882144875925], "bias": 0.441397242402242}, {"weights": [0.3130256936123624, 2.072817784223236, 1.8577805035191008, 2.408492799633726, 0.48044556864149257, -0.19697074885456142, 2.2265680869449858, -0.8886500067785501, -2.3468062037108552, -0.20984152052981478, -0.09686185566836845, -0.010979299562660355, -1.5557359765752254, -0.02624946334739802, 1.7611551608173015, -0.1480635997712259, -4.8998886176241765, 0.9125221159580142, 2.1655446507671883, 0.903258024679749, -0.012130225827545362, -4.414792964350362, -0.1411955624277103, 2.3444487460170604], "bias": 5.695877905674782}, {"weights": [-0.6165312950024501, 2.3550268271731745, -0.6915109162493679, -0.2703453264599693, 2.3444537279628164, -1.4540031759409846, 0.44146749895854265, -0.06917484120345606, 2.508832888056576, -0.49430293084962357, 0.9931471987628747, -0.48296882488692383, -4.84065803987005, 1.5114324415410867, -0.924888484204204, 2.144930634879675, -0.49027512468639406, 0.32937409707899684, 0.10380513710310534, 1.0800617929549676, 0.6659645363989581, 0.3323110543109403, -1.733059109458132, 2.7913064424045437], "bias": 2.1922436135166805}, {"weights": [-1.5524509852563229, -0.8838921378814524, 5.006523515032624, 0.4422787769137359, 1.1791375964859205, 2.590155715789051, -0.1924041367960292, -0.23419150369152245, -0.8141835528296081, 0.37422665874461347, 0.14052157981424554, -2.04635672262571, -4.456574362987844, 2.291923958459725, -0.5361702726662863, 2.1148475729292833, -0.652860751348175, -0.927677698471864, -0.024327397850147876, -2.0298836992306026, 5.580448537472806, -3.00770849046204, -1.766992522594206, 2.052410002819721], "bias": -0.18727149525593456}, {"weights": [0.3814316619435525, -3.1389929657637414, -1.0080453107008205, -0.7621362384733144, -1.5580914056924338, 1.5099751737903682, 1.0138086543512133, -3.871888135209053, -4.709784369341801, -4.008923112207746, 3.2785449530606003, -0.544993743889949, 0.2819487045800441, 0.45824404540727887, 3.274048876044795, 1.615876024156712, -2.326548917719435, -0.4515120146998807, -2.0133027392349323, -1.0246675069747526, -4.988995992509555, -1.0815270257127743, 1.3874569600753848, 0.1703651191281928], "bias": -0.7588214233060815}, {"weights": [1.0759390950996388, 3.500853770510948, 4.602722254471313, -2.2962167142992578, 1.8517669678656488, 1.114821716090443, -2.2753358520326104, -2.2747652037659596, -2.42852855432664, -0.49471359647610574, -2.1843063826937783, -0.21154352776196758, 1.3654388944080065, -3.244092040400723, 1.4489515340447467, -0.6582494775004352, -0.983632394773038, 1.2725041861123554, 1.5705041389667773, 0.7790919796186849, 0.6624930787203654, -1.1642542596154368, 1.961184674773392, 2.7567597668240307], "bias": -2.8409973003050446}, {"weights": [-2.4484137220312383, -1.4421258737978404, -0.25453599619178346, -2.183635648099904, -0.5799556274073996, 1.9755830777795758, 1.654069893528379, -4.162913857012724, -2.5497723092870417, -0.6578518334316361, -3.3262169166759135, -0.7289955454861166, -0.09415986443730244, -0.14182492829077717, -1.126015943511141, -2.725391530744506, 0.8546501953034294, 1.3507944113769184, 2.265611538276167, 0.010210553544324525, -2.040727429286907, 5.679050195747979, -1.7105573580002904, 2.580029173386913], "bias": -0.23695884540897522}, {"weights": [-0.6013095254957003, -0.6135665958404475, 0.5788706680031931, 0.7663060784213365, 1.4489761621199058, 2.379857643319813, -0.714489496012719, 1.6555796107166907, -2.098013860060519, 2.5366011919818425, 0.09152789722158475, 0.7324723615699807, 0.8718695736742543, -0.19769939882400042, -0.7584078618722133, 5.792758120779137, 0.29812404365548617, -2.1343875114344604, -2.3146634896002847, -3.4344132265105576, -3.560277609623574, 0.8309310251391208, -0.1582519963433972, -0.8580548889632894], "bias": -1.2162263431642077}, {"weights": [-1.7937597756882526, -0.33233345086282784, 1.157994205816252, -1.8285178059920066, -0.8174384583931122, -1.0686823074971057, -0.11749011539126221, -0.44799210048278554, 0.5855822889483058, 1.5382203128571337, 0.17743603838815966, -1.2042840746428636, -0.4557228837266676, 1.1872897464308756, -1.8035797749537337, -1.1196976617167604, -1.104397348572818, -1.410683754681452, -2.349357447681269, 0.8477876695727271, -4.305009573818206, 0.0073861285717573815, 2.7686749109736164, 0.42688973375681344], "bias": -3.3157380471697033}, {"weights": [0.5927259647242011, -2.2235554268318074, -3.4935931045094835, 0.9753257470310756, -3.264376739032606, 0.3741580622296384, -1.4994108843493883, -1.0476691177880832, 0.7485634815224269, 1.6235080816341547, -0.5982961556918778, 0.16069595610278664, -0.2073129427476196, 0.36810277550198117, -0.7959448288685073, 1.730299321048739, -3.730957742351784, 0.8880512420554042, 2.993138209821327, -0.43521128096933775, 5.058390696117671, -0.3363989028696952, -0.9620243218881814, 1.6282050680179283], "bias": -2.571762062713226}, {"weights": [2.5024058359861012, 2.072379735929014, 0.8351549448626949, 3.7953716364421046, 0.9479392109873516, -0.33414477591822284, 1.4268360610686424, 2.149369900879011, -3.408954731226706, 0.556561076215657, 0.785659376106379, -0.33516227060312676, -4.827707362869663, -4.453460096433023, -2.2301139680922977, -0.18214065181013936, 3.8950027419210507, -2.3864058857306945, -1.507465483469484, -1.449649784164766, 0.19378557439858204, 2.1724704163056603, -1.9081685267587325, 1.5039400141638832], "bias": 1.8212950252475277}, {"weights": [0.49364059543894984, -0.546985876970211, -3.948463818198541, -3.545341584970254, 2.5519098352183485, -1.7834357859452799, 2.077577934022554, -3.72330017655864, 4.031183700952781, -0.35025180571549447, 4.3883407451361895, 0.5067894171266825, -0.4159392096426943, -1.761808052870108, 2.9816073180840013, -1.1678147052099566, -2.1209445021379345, -1.2726810955436088, -0.6827476683574674, -0.6205144793097932, 1.3887833485354741, 1.544095702115393, -4.1857598635528435, -1.4474535026671493], "bias": 1.9665824295990197}, {"weights": [0.000817743011309529, -1.1074457817432142, 0.9915860499993976, 1.138864794029023, -2.134000834103828, -2.6558127299703678, -0.6361791229572006, -1.148106360474315, 1.935967704212667, -2.3753113785755984, -0.20263664789421357, -2.2988063487361536, 0.1960777505850204, -3.4136084175866652, 2.0641051148438434, -0.014113156607836444, -0.013137014220363478, 1.5630900653228632, -0.2953106999222192, 2.1347989687711744, 1.1172512054206767, 0.75566637410298, 2.567889223344625, 3.289247313745196], "bias": 0.28934350032326506}, {"weights": [-0.18265184983082863, 3.7184976121071154, 0.0057251203191419995, 1.6971377856867809, -0.7185025526920332, -0.9637914376466575, -1.6940293688859207, 0.8511864121221293, -1.6467442344786134, 1.6174340159546947, -3.023376290325238, 1.4490369156789722, -1.3377587159186697, -2.923753897182115, -0.6357563089150694, -3.515085883562226, -1.8581909313619835, -2.164739365571689, -0.0693235047374521, 0.9556855716714475, 4.608475747212855, 1.50297755145584, 1.0415531975306789, 0.7841348533135579], "bias": -3.5246913213645663}, {"weights": [1.4431534114999343, -0.046282684913662504, 3.0974544654311327, 2.5596226771431883, 2.0235823243079647, 1.7004082006621737, -1.0881424777207696, -2.1515526665389055, -2.4748376560963044, 1.591534746743098, 0.48446041548658925, 1.2958215606597072, 0.6921245257702977, 3.4494891634562417, -1.6780182756428754, 0.8716578383839169, -4.522473459275811, 0.8429075654578115, -1.559428495796513, 3.6783637450686846, 0.6560161104768122, -2.0132476057341866, -0.9900508830639442, 1.6353233207611153], "bias": -0.2115662424807948}, {"weights": [0.6558427437409046, 1.279008735035714, 0.46391613441935864, -0.16358884444805538, 0.9892300082087242, -0.08499343663391275, 4.076058330234089, -0.2526584820348166, 0.19320779200250415, 4.001879237202635, 3.478357929009304, 0.6952288489730494, 0.6027433534634632, -2.0185133771521375, -1.1024301823776403, -2.274390777561765, 2.0891456238326525, -2.8320971918401936, -1.0419670437252917, 1.5741179495244328, 2.5217165002419395, 0.13335222941723804, -1.952398550061636, 2.602943258890921], "bias": 2.5074674282367715}]}